#ifndef FIR_H_
#define FIR_H_

static double fir_weights[] = {
    -0.004271576826705937,
    -0.007515989002527683,
    -0.003591547806883769,
    -0.005731906476553468,
    -0.002581857239351702,
    -0.0014080959960246497,
    0.0012766387575024426,
    0.0023201490408521616,
    0.0027766777840208708,
    0.0017211452019693216,
    0.00009706292221910043,
    -0.001701549825919289,
    -0.0027446078553223633,
    -0.002667859023526391,
    -0.0013989774535226266,
    0.0005291679296072911,
    0.002348762756201318,
    0.003249785865604806,
    0.0028056076219205544,
    0.001114987864431118,
    -0.00116533595532877,
    -0.0030938404858746574,
    -0.0038190857993726235,
    -0.002945975407800914,
    -0.0007448223629665032,
    0.0019293732854098035,
    0.003960540956311125,
    0.004429737015893411,
    0.0030286594243483424,
    0.0002301858774392975,
    -0.0028670931321765425,
    -0.004945775756148649,
    -0.005047632503987275,
    -0.002983109450306258,
    0.0005159849222456272,
    0.00404564283010868,
    0.006098219122034532,
    0.00567406485698905,
    0.0027776773071860137,
    -0.0015339172924771012,
    -0.005513773224171955,
    -0.007426120255569145,
    -0.006283285368102743,
    -0.002343286565663922,
    0.0029282923765500705,
    0.007366800846061073,
    0.008987931283339865,
    0.006860880683350382,
    0.0015783914546548437,
    -0.004857158506624631,
    -0.009765016134559905,
    -0.010886768662242904,
    -0.007383922760453688,
    -0.00031917167069648396,
    0.0075944517968338735,
    0.013017120828386762,
    0.013330235380566598,
    0.007834950896620408,
    -0.0017517024323918228,
    -0.01173701590829151,
    -0.017820004415923015,
    -0.01682643855710401,
    -0.008205771759548737,
    0.005397377843017998,
    0.018781965121148308,
    0.026024089896893757,
    0.02280773873794215,
    0.00847559672109456,
    -0.013058939261174985,
    -0.03398681373862655,
    -0.044838885072450055,
    -0.03758960664126101,
    -0.008641676116003114,
    0.03938887562651521,
    0.09777143462580991,
    0.15374620646542023,
    0.19403829010833407,
    0.20869731600781788,
    0.19403829010833407,
    0.15374620646542023,
    0.09777143462580991,
    0.03938887562651521,
    -0.008641676116003114,
    -0.03758960664126101,
    -0.044838885072450055,
    -0.03398681373862655,
    -0.013058939261174985,
    0.00847559672109456,
    0.02280773873794215,
    0.026024089896893757,
    0.018781965121148308,
    0.005397377843017998,
    -0.008205771759548737,
    -0.01682643855710401,
    -0.017820004415923015,
    -0.01173701590829151,
    -0.0017517024323918228,
    0.007834950896620408,
    0.013330235380566598,
    0.013017120828386762,
    0.0075944517968338735,
    -0.00031917167069648396,
    -0.007383922760453688,
    -0.010886768662242904,
    -0.009765016134559905,
    -0.004857158506624631,
    0.0015783914546548437,
    0.006860880683350382,
    0.008987931283339865,
    0.007366800846061073,
    0.0029282923765500705,
    -0.002343286565663922,
    -0.006283285368102743,
    -0.007426120255569145,
    -0.005513773224171955,
    -0.0015339172924771012,
    0.0027776773071860137,
    0.00567406485698905,
    0.006098219122034532,
    0.00404564283010868,
    0.0005159849222456272,
    -0.002983109450306258,
    -0.005047632503987275,
    -0.004945775756148649,
    -0.0028670931321765425,
    0.0002301858774392975,
    0.0030286594243483424,
    0.004429737015893411,
    0.003960540956311125,
    0.0019293732854098035,
    -0.0007448223629665032,
    -0.002945975407800914,
    -0.0038190857993726235,
    -0.0030938404858746574,
    -0.00116533595532877,
    0.001114987864431118,
    0.0028056076219205544,
    0.003249785865604806,
    0.002348762756201318,
    0.0005291679296072911,
    -0.0013989774535226266,
    -0.002667859023526391,
    -0.0027446078553223633,
    -0.001701549825919289,
    0.00009706292221910043,
    0.0017211452019693216,
    0.0027766777840208708,
    0.0023201490408521616,
    0.0012766387575024426,
    -0.0014080959960246497,
    -0.002581857239351702,
    -0.005731906476553468,
    -0.003591547806883769,
    -0.007515989002527683,
    -0.004271576826705937
};

#endif // FIR_H_